svm_type c_svc
kernel_type rbf
gamma 0.5
nr_class 2
total_sv 8
rho 6.6216426949389442
label 1 0
nr_sv 4 4
SV
100 1:0.556 2:0.215 
65.396727296159042 1:0.403 2:0.237 
100 1:0.481 2:0.149 
100 1:0.437 2:0.211 
-100 1:0.243 2:0.267 
-91.732482393981925 1:0.343 2:0.099 
-100 1:0.639 2:0.161 
-73.664244902177145 1:0.719 2:0.103 
