svm_type c_svc
kernel_type linear
nr_class 2
total_sv 8
rho 2.3880855605894289
label 1 0
nr_sv 4 4
SV
100 1:0.556 2:0.215 
72.982448712921567 1:0.403 2:0.237 
100 1:0.481 2:0.149 
100 1:0.437 2:0.211 
-100 1:0.243 2:0.267 
-94.70098479301096 1:0.343 2:0.099 
-100 1:0.639 2:0.161 
-78.281463919910607 1:0.719 2:0.103 
